<?xml version="1.0"?>
<opencv_storage>
<my_nn type_id="opencv-ml-ann-mlp">
  <layer_sizes type_id="opencv-matrix">
    <rows>1</rows>
    <cols>3</cols>
    <dt>i</dt>
    <data>
      50 10 7</data></layer_sizes>
  <activation_function>SIGMOID_SYM</activation_function>
  <f_param1>6.6666666666666663e-01</f_param1>
  <f_param2>1.7159000000000000e+00</f_param2>
  <min_val>-9.4999999999999996e-01</min_val>
  <max_val>9.4999999999999996e-01</max_val>
  <min_val1>-9.7999999999999998e-01</min_val1>
  <max_val1>9.7999999999999998e-01</max_val1>
  <training_params>
    <train_method>BACKPROP</train_method>
    <dw_scale>1.0000000000000000e-03</dw_scale>
    <moment_scale>9.0000000000000002e-01</moment_scale>
    <term_criteria><epsilon>1.1920928955078125e-07</epsilon>
      <iterations>300</iterations></term_criteria></training_params>
  <input_scale>
    9.5367470274154779e-05 5.0674171404129775e-01 1.9390959295965837e-04
    -2.2619234883298478e-01 3.0029734886884618e-04
    1.7912857288721178e+00 4.5710251594459410e-04 1.6430102442788294e-02
    4.3375242242207180e-04 -6.9224331061378175e-01
    5.3444943554042240e-04 -1.8097770001557398e-01
    7.3872557946637698e-04 1.7609059958040921e-02 8.0750456915441512e-04
    3.0252931818416130e-02 5.7814133516212126e-04 6.4737177894518949e-01
    7.4846795973136540e-04 5.3047019877449930e-01 8.5090052373877905e-04
    -4.8323084102507924e-01 7.4669858259935229e-04
    -6.3543370968860124e-01 1.0649939702877293e-03
    -1.4717626278485801e-01 1.0919728683064644e-03
    -1.4559347962710087e-01 1.2276479879028176e-03
    -3.0529440244634309e-01 1.0170509718184974e-03
    -4.3903165936166522e-01 1.3684736796473077e-03
    -3.0630817260793395e-02 1.3637079781674325e-03
    -8.7105711923501375e-02 5.9270938022596277e-04
    -6.4097996365240983e-01 1.4195799059592779e-03
    4.0489150396448764e-01 1.4994564802969814e-03
    -3.5326948856191899e-02 1.4512928619654459e-03
    -3.3750917438795680e-01 1.3794774494730905e-03
    -3.6009637931377531e-01 1.6935013746249875e-03
    -1.9290536550308210e-01 1.5039132371748839e-03
    3.5062441604703104e-01 1.0970649871383921e-03
    -6.0323009960299312e-01 1.7209147858826210e-03
    -3.0325353765995983e-01 1.8434438023519554e-03
    2.1219731001087269e-01 1.4156808882100204e-03 4.9015174953337498e-01
    1.6869474027420169e-03 -3.8786989508358044e-01
    1.3353820708435753e-03 4.0319234226374151e-01 2.0808617116766658e-03
    -2.7697179271003575e-01 2.0067609617655268e-03
    -3.4407834799780568e-01 2.1766876772317603e-03
    4.6037657358103175e-02 2.3101612886661810e-03
    -2.3075851690617818e-01 2.2777441849899395e-03
    -1.7641929741576473e-01 2.3480793548627892e-03
    1.6348110557763751e-02 2.4490202887079639e-03
    -1.1984996462300009e-02 2.3338986309315020e-03
    -2.0744680461790263e-01 2.4165450210470829e-03
    2.0063004476276886e-01 1.6257560317430402e-03
    -4.4964097688180071e-01 2.0084398744952357e-03
    -3.4985303059945994e-01 2.2058600913971958e-03
    2.4363658968490989e-01 2.5372020885209732e-03 1.2034926155593267e-01
    2.7438505306381623e-03 -2.0028185882390442e-01
    2.6002867686625831e-03 1.8716589686903273e-01 2.8686748864606782e-03
    8.8716136403590388e-03 2.5849294588511521e-03 2.6613183079750946e-01
    1.9676941802582184e-03 4.1515469841559821e-01 2.5410748179702132e-03
    3.3172120033206220e-01</input_scale>
  <output_scale>
    5.2631578947368418e-01 4.9999999999999994e-01 5.2631578947368418e-01
    4.9999999999999994e-01 5.2631578947368418e-01 4.9999999999999994e-01
    5.2631578947368418e-01 4.9999999999999994e-01 5.2631578947368418e-01
    4.9999999999999994e-01 5.2631578947368418e-01 4.9999999999999994e-01
    5.2631578947368418e-01 4.9999999999999994e-01</output_scale>
  <inv_output_scale>
    1.8999999999999999e+00 -9.4999999999999996e-01
    1.8999999999999999e+00 -9.4999999999999996e-01
    1.8999999999999999e+00 -9.4999999999999996e-01
    1.8999999999999999e+00 -9.4999999999999996e-01
    1.8999999999999999e+00 -9.4999999999999996e-01
    1.8999999999999999e+00 -9.4999999999999996e-01
    1.8999999999999999e+00 -9.4999999999999996e-01</inv_output_scale>
  <weights>
    <_>
      -8.6946610479984154e-01 -5.5606597837454627e-02
      -3.0363310006898975e-01 2.7807084200169302e-01
      -2.3947712039453267e-01 4.6639531923610927e-01
      -3.4696644066914878e-01 5.7275916453348641e-01
      -1.0730393309620025e-01 -4.3619452388145402e-01
      9.0853940315181636e-01 -7.2040937156034046e-02
      -5.0593487274161630e-01 2.7739373210237867e-01
      -9.3505201949599748e-01 -4.5338570014555331e-02
      1.9296364637065591e-01 -8.0581974507114268e-02
      4.5552174686464342e-01 4.1426922519742920e-01
      -1.2843225410021804e+00 3.0676274404451437e-01
      -7.6090492952742861e-01 1.0634152885103847e+00
      -4.5193681983387618e-01 -4.5738098975385089e-01
      8.8821716115863170e-01 -3.4743375572380542e-01
      2.6120910103006967e-01 3.8899082418233205e-01
      -1.2762904733106555e+00 -4.3066575085439812e-01
      -2.4692454743620249e-01 -3.0932904230379515e-01
      2.1621838531669330e-01 -2.1842401973930781e-01
      9.6077994546732534e-02 2.9633909807338243e-01
      -3.7600618274141351e-01 2.9358000920720456e-01
      -6.3821381839179636e-01 -2.3844664169333793e-01
      5.9217779252670366e-01 8.1921516054077004e-01
      -7.7167314050522418e-01 -5.2348864141315421e-01
      -1.9721105684133861e-01 -4.9438510302258298e-01
      -4.3077482035409925e-01 1.5148249062004351e+00
      -1.2118132078776180e+00 -1.1699318504134917e+00
      -3.2849598541958080e-01 -1.3707341516929006e+00
      1.0781526512575812e+00 -2.7182080686358445e-01
      3.7625001787151663e-01 4.3881428830542279e-01
      -7.1375872911886851e-01 6.2259814145598313e-01
      7.4170956298767088e-01 -1.0152038930834655e+00
      -2.2863320891215713e+00 -2.6694319336783534e-01
      -9.9193980077153798e-01 2.8775173584536901e-01
      6.1357156956975001e-01 6.7833814812434767e-01
      1.4931133861856893e-01 4.9600066242889512e-01
      1.1962163803741004e+00 1.7876049692159149e-01
      5.2727664062972379e-01 5.8793749284000152e-01
      1.3489925090702265e-01 -3.1316568367391778e-01
      -2.1542007867374219e-02 -3.7261731698138117e-01
      5.9377914196580661e-01 -4.5695915863742054e-01
      6.6223597948306889e-01 2.8487272715204703e-01
      -2.3524556400223165e-01 2.9693232366637007e-01
      5.0354115913031006e-01 -4.6668895977594876e-01
      -8.0317789831964477e-03 -1.6062186242359494e-01
      3.0881896939738090e-01 -1.5246941135957515e-01
      -5.3785137477621325e-01 -2.9507233881817130e-01
      -2.6785635169087602e-01 -3.6663446826691859e-01
      7.0551822601307745e-01 -5.8816326917612100e-02
      -2.4284357932472836e-01 7.8109168793134121e-02
      -8.1497538836740796e-02 -3.1164055595415280e-01
      -1.4222598454230460e-02 4.3394979581950216e-01
      5.4317603338144615e-02 8.0012510293934291e-01
      -5.7740116196779645e-01 -4.7100046196814210e-02
      -1.3890578420313485e-01 2.5570841414999590e-01
      -6.7337236371009845e-01 3.2668171633964238e-01
      -6.6132415513118811e-02 7.3615071989546965e-01
      7.7826419071226638e-01 2.0957401960782410e-01
      1.4031231162746651e+00 -5.6574130302447845e-01
      2.1479493824848750e-01 -1.0295275810689082e+00
      2.9205200627137939e-01 -1.5482842296381520e+00
      -1.6863779726319039e-01 -5.6973036496611673e-01
      -1.0628780897877026e+00 -1.3947724639695708e-01
      8.3896589910208652e-02 1.0835042102141494e-01
      -2.5480676577289824e-01 4.2432872352489703e-01
      -4.1926100694270241e-01 6.2504426974050453e-01
      3.4043158463189943e-01 6.6775920076416972e-01
      2.5220556361445318e-01 -9.8499119050921724e-01
      6.2217574014890011e-02 8.8377964903464980e-03
      2.5065446772291811e-01 -1.8318224093724220e-01
      -8.8990455433986343e-02 -6.5242057654771340e-02
      -2.9924141101890694e-01 2.5988021003479317e-01
      -2.7010721479186167e-01 8.7582694084464530e-01
      1.0699063131180320e-02 -2.4574249206465465e-01
      -2.9318544292479751e-02 -7.0173442516747259e-02
      -1.2480226534953263e-01 -5.9497151605771514e-01
      -1.2844723780065992e-01 -1.5154575722368563e-01
      -4.2916226683182018e-01 -7.7013508392485264e-01
      -3.3103017878879981e-01 2.7227823526749034e-01
      -6.4690435072831967e-02 8.1990339332141959e-01
      -3.8770463942512207e-01 1.1854097689739321e-01
      1.2616478794426378e-01 -8.0391655962371888e-01
      -7.0908612496075862e-01 -3.1507176219712046e-01
      -2.1171666640033962e-01 8.5458530344977163e-03
      -1.6872711396977882e-01 2.0093237131598679e-01
      4.5887435615626082e-01 1.6597827654423272e-02
      1.6176860850987122e-02 -1.3954484849347965e-01
      8.1099663183791540e-02 -1.6839338851461752e-01
      -1.5189758452962463e+00 8.1365673858663345e-01
      -9.1694319349376219e-01 -2.5730119409871066e-01
      -1.8847128735755497e-01 4.8618958624201747e-01
      1.4045862054552072e-01 -3.7837418348866961e-02
      -2.4001099168247450e-01 -3.6266897484320715e-01
      1.0625130311918489e+00 3.9257694058685488e-01
      -5.0220315834884788e-01 4.3956146257970735e-01
      1.3078284139839372e-01 -4.1539352791287965e-01
      -7.0230112692811186e-01 4.6168115031285240e-01
      -7.5270901844263083e-01 -3.3373078069256079e-01
      -6.5396668184216178e-01 2.8967544976059151e-01
      -2.8369672038940796e-01 3.7445795152282474e-01
      -7.2427042738102165e-01 -3.2540608722019732e-01
      -2.4083720829512859e-01 5.8689644784145956e-02
      -1.1465619764937678e+00 -2.1291853412125655e-01
      -6.9328556953531928e-01 -3.2141365908047975e-01
      6.5078143333274108e-01 4.5419861956940616e-01
      2.1394182716029300e-01 -1.2869833037555983e-01
      -2.6017569089638572e-02 2.6608376515544419e-01
      -3.2185218557554729e-01 3.3925322569175231e-01
      3.1315888112024831e-01 -5.7535950408497205e-01
      4.7422903835282415e-01 -1.4654900860210640e-01
      2.3876164168001110e-01 -1.1541928307337936e-01
      5.4993738518152302e-01 5.1195630052265451e-01
      1.7432690190325992e-01 -3.9843886865051448e-01
      4.0840571123423747e-01 -4.0168927808228333e-01
      3.3709170827894164e-01 6.0367036451953911e-02
      -3.0607810741784886e-02 -6.8526982478310516e-02
      3.4847172842907614e-02 3.9199611570702031e-01
      2.2778878372921835e-01 3.9410133263967684e-01
      1.6260348702028116e-01 -6.3053056093551441e-02
      -1.7862049284258888e-01 3.7832426759528350e-03
      -4.0562921409404096e-01 4.5493254011962796e-02
      -3.1753928332743535e-02 4.2165242239522688e-01
      7.9981360461939075e-03 -1.1406376040297608e+00
      5.4298991106060834e-01 -5.4003489218371226e-01
      9.3437560031672162e-01 1.1158750627932928e-01
      -1.4786564397208785e-01 -2.2541390236216544e-01
      1.0179264682533136e+00 4.1517081735004813e-01
      -2.4787851787910473e-01 -2.3460781994109103e-01
      2.6145837703522906e-01 3.3510610462922280e-01
      1.1894788455926020e+00 -4.0079320182271511e-01
      1.0812220220288853e-01 -7.3780557729899765e-01
      -5.0683348359890534e-01 -2.2517708201434813e-01
      -4.1002973581870711e-01 1.6276763834139264e-02
      -6.9762994822581165e-02 1.4881219341193361e-01
      -2.1730393074539717e-01 3.2239110797794235e-01
      -1.4142894001018247e-01 1.2024586140884368e-01
      2.2772012178960618e-01 4.3114180954237230e-01
      1.7728264127510629e+00 -1.6970136833414801e-01
      2.9797338376946597e-01 4.1385616202501939e-02
      -3.2409803205353899e-01 -2.8619059147397846e-01
      1.3376292572571549e-01 -3.4530863290483868e-02
      8.4311438629313312e-02 -5.3321600068968289e-01
      -1.9542953747516120e-01 -4.7955728695636697e-02
      -3.0244360219016286e-01 2.9123831835920183e-01
      -5.5613559225412035e-01 1.8749471928203387e-01
      1.7084178411709175e-01 5.0803691282201646e-01
      -4.5335897041251128e-01 -2.1111560677606775e-01
      -2.0621475377848830e-01 4.2847621548039228e-01
      -4.8235884316556188e-01 -1.4800440306001927e-01
      7.6884480028534388e-02 4.2592954783031317e-01
      1.1917236294699667e-01 -8.4243631736739477e-01
      7.0045012191926409e-02 8.2663113042015712e-01
      1.0072536346665533e+00 2.1632609013012441e-01
      6.0394722692321334e-01 -1.1927868210315738e-01
      5.4328605523860607e-01 -4.3041060501564277e-01
      2.3238591821422944e-01 -4.3313588686890747e-01
      9.6680482704407225e-02 -1.0658802411288158e-01
      2.0720790422168217e-01 1.6462672946269605e-01
      -4.8602576455001312e-01 -4.7318206882068621e-02
      -2.2570337120920109e-01 -4.3967979489575271e-01
      7.2690627358390214e-01 -1.6865818378112513e-01
      -3.3630892302576998e-01 -6.3863150484752085e-01
      4.2801471115118350e-01 -4.8090328687880074e-02
      -3.2726889910983226e-01 4.8247760289834851e-01
      -5.4617682684438107e-01 -5.9923280154664200e-02
      -1.7498879224985342e-01 3.1747221618340843e-01
      2.3198680363733148e-01 -2.2356943865507040e-01
      -1.2018662789133134e+00 4.9517552098653744e-01
      -6.9841745605461913e-01 2.5184805090425699e-01
      -8.9142235695029631e-02 1.8679738127088966e-01
      -2.4357631360155171e-03 8.0000595738026181e-01
      -4.0766318555926445e-01 -1.1472717034362158e-02
      2.4683262022149799e-01 4.4415101112859325e-02
      1.0932812100099780e-01 -2.0757496646599968e-01
      9.6402457745130302e-02 -1.4650508382626282e-01
      3.4565933797950049e-01 -2.8319756281090047e-01
      5.2997856500712970e-01 -1.0387838223824086e+00
      -2.9845318976868329e-01 -1.2123614052243985e+00
      1.8855902166938263e-01 8.6281659098803504e-02
      2.0713094867434614e-01 -4.0650647544648026e-02
      4.4089481105847894e-01 9.8721492549059353e-01
      2.6897758787630954e-01 -6.3566006364281932e-02
      8.6383994322394919e-01 -5.9454016155700251e-01
      8.1209785419515401e-01 -3.6854303886431350e-01
      6.5869413549865807e-01 1.6646384119868599e-01
      2.1207955234902673e-01 3.4221073020770226e-01
      9.3180499293377717e-01 3.6793609203743044e-01
      7.8324129257348982e-02 -1.6461305811775528e-01
      2.5558860988971227e-01 -6.0368927156835679e-02
      1.5251666120372107e-01 -3.8643186774687775e-02
      -4.6164083586190813e-02 6.4426762361698631e-01
      2.1203313009488628e-01 3.4907622697999768e-01
      1.8163311217799780e-01 9.1442624697344349e-02
      1.3674836219691830e-01 -8.4557468083157353e-02
      6.3206727237139188e-02 1.9292242148111155e-01
      -3.3590070397676242e-01 1.4205712434328691e-01
      2.9177689037672590e-02 2.5482258299915544e-01
      4.1918294072714768e-01 -7.4453750993561207e-01
      5.1352370082659393e-01 -3.8159898487561328e-01
      7.8588718138613589e-01 -2.7754545503143591e-01
      2.9239301529360689e-01 -9.3877165735106127e-01
      -1.7675065129904927e-01 4.6433870308320147e-01
      1.8968015104591512e-01 3.3217318099340559e-01
      -1.1001777921236934e-01 -1.3338746148478731e-01
      7.2248497937056155e-01 -1.9266120128629780e-01
      1.7061455963152419e-01 -2.1055388795643235e-01
      3.6191368266797830e-01 6.4940017697398533e-01
      9.1991274541025569e-01 -4.8983637218373466e-01
      -6.7662150282717395e-02 -1.4950473552490443e-01
      5.5929885122160308e-02 -7.2186068424122396e-01
      -1.3153964451681247e-01 8.1998194255410231e-02
      -5.0700830362797245e-01 -1.2219976706090097e-01
      2.9900204481303788e-01 -1.4692536262468670e-01
      -2.7753489625027472e-01 -8.2632075580849035e-02
      4.0400028990798968e-02 1.3586721559828302e-01
      5.6083558076819983e-03 -8.3698332325430991e-01
      1.9173665251028310e-01 2.3908105759223661e-01
      2.4401741907144178e-01 -3.1240269252786446e-01
      4.3855375759455051e-01 -2.4385717270643417e-01
      3.5932268080358065e-01 -1.9090940972707746e-01
      5.9449914354677683e-02 -4.8460926434272655e-01
      5.1068472079235872e-01 3.8631567238888009e-01
      7.8755693620597833e-01 6.9116478379738999e-01
      2.8921961604327395e-01 -5.0606524124805941e-01
      -3.3895415818332369e-01 -1.4459596647976594e-01
      -1.7422338424848666e-01 5.0386600670009940e-01
      -1.3893056033584439e-01 1.9226248711754108e-02
      -1.1893424165125153e+00 -3.2852865064701442e-01
      -1.4414583890364022e-02 -8.7224233782235941e-02
      5.6121755665781325e-01 5.0893444353119233e-01
      -1.4480748698663168e-01 -1.1649067680392068e-01
      2.5938715071042617e-01 1.2739432960811613e-02
      -3.0985141485080531e-01 -2.2380845325735305e-01
      -5.6694988946599001e-01 8.1372662859274769e-01
      -5.5375696663249485e-01 -1.8223430588850550e-01
      -7.1959036228024598e-01 6.3761160593543642e-01
      5.7080913859273380e-03 -1.3936966342797799e-01
      6.6597297766680996e-01 -6.6377458851237880e-01
      1.5936564464359973e-01 3.7257426479667892e-02
      -1.0599703902844898e-02 -2.4721436212054163e-01
      -5.2637225130008021e-02 4.8622871470921691e-01
      8.9317045924298710e-01 -5.7980893966081348e-01
      -3.0748459724232757e-01 -3.5893205708420051e-01
      -8.6490552924492869e-01 5.0579716826514765e-01
      -1.5495922984072957e-01 -2.6271143775829269e-02
      5.1917311541531286e-02 -9.4179289087410439e-02
      5.6037594117980760e-02 1.8028701554014209e-01
      8.7732278985945877e-01 6.0119781964240337e-01
      4.2468152586971708e-01 -4.7490152308832112e-01
      -3.2371666555186890e-01 1.4281223814159155e-01
      3.2972566815300086e-02 5.6182679717317843e-02
      2.7479003395192225e+00 -1.0715825330023327e+00
      1.3287515658454534e+00 -1.5748053029868863e+00
      -4.3246543237414842e-01 -7.1036470403921503e-01
      -1.0110982787097968e+00 1.4069200803850210e-01
      -1.1897111372252329e+00 -5.0918194790647253e-01</_>
    <_>
      -4.7319613059869936e-01 -3.6939874457752697e-01
      -1.1909508213647911e-01 -2.6991681292060695e-02
      -2.7675394559084698e-01 3.9798369211092824e-02
      -1.1053981381368104e-01 2.0338572190414786e-01
      -6.3384311120887993e-01 9.9069855599586587e-01
      6.9996323240991754e-01 9.5275687075981308e-01
      -7.9566524359736457e-01 -3.2746804247209760e-01
      5.3630659834297045e-02 -2.4208584233642871e-01
      -1.4091015776570435e+00 -5.5414254683852338e-01
      2.6313122512697085e-01 1.6783522059364087e+00
      3.3725541969179196e-01 -2.6813174145781499e-01
      3.5267352390700291e-01 -7.7565890079811806e-01
      8.5204396236200686e-01 -1.1280014369069220e+00
      9.6059334092600424e-01 7.4918472900470739e-02
      1.7366036450480560e-01 -6.1770325178288221e-01
      4.4057850630470330e-01 5.2885496148305666e-01
      -9.5208155772670666e-01 -6.4647614498179062e-01
      9.8405334195867189e-01 -3.7774914844394625e-01
      -6.6080690745662418e-01 1.4859975340726821e-02
      8.7255128375027435e-01 -2.3840944820641594e-01
      6.9299140279473903e-01 9.8696281372800909e-01
      5.5020481474069338e-01 5.7795259876486738e-01
      -1.3010522037990266e+00 2.7164805111332457e-01
      -3.4403143183442991e-01 7.6808216460824064e-01
      5.2076953061021732e-02 -6.6563118845748259e-01
      -3.6363950232422532e-01 1.5409524588262583e-01
      -8.8535826302103804e-01 2.5929491281255216e-02
      7.4855567955949454e-01 8.8316531717188784e-01
      -5.7657744397085264e-01 -3.9952632440470892e-01
      9.0008914732242118e-01 9.0511910267794282e-01
      1.4652703604892048e-01 4.4464575480065416e-01
      -1.7129678359438510e-01 7.7184856914991662e-01
      -3.6834266224808876e-01 7.0421889214965172e-01
      1.4856630652830302e-01 -3.7896592085969183e-01
      4.7007182508120543e-01 -7.2819947920597916e-01
      -1.1306470581189620e+00 -1.4097355297161842e+00
      -4.7272006358434199e-01 4.2865100709148712e-01
      -1.7721031150864306e+00 -1.4349416176393777e+00
      -1.3285523345640664e+00</_></weights></my_nn>
</opencv_storage>
